digraph Tree {
node [shape=box, style="filled, rounded", color="black", fontname="helvetica"] ;
edge [fontname="helvetica"] ;
0 [label="length <= 15.0\ngini = 0.341\nsamples = 137314\nvalue = [107350, 29964]\nclass = Normal", fillcolor="#eca470"] ;
1 [label="gini = 0.0\nsamples = 3728\nvalue = [0, 3728]\nclass = Anomaly", fillcolor="#399de5"] ;
0 -> 1 [labeldistance=2.5, labelangle=45, headlabel="True"] ;
2 [label="crc rate <= 12869.5\ngini = 0.316\nsamples = 133586\nvalue = [107350, 26236]\nclass = Normal", fillcolor="#eba069"] ;
0 -> 2 [labeldistance=2.5, labelangle=-45, headlabel="False"] ;
3 [label="crc rate <= 12868.5\ngini = 0.15\nsamples = 47074\nvalue = [43221, 3853]\nclass = Normal", fillcolor="#e78c4b"] ;
2 -> 3 ;
4 [label="length <= 31.0\ngini = 0.424\nsamples = 12298\nvalue = [8549, 3749]\nclass = Normal", fillcolor="#f0b890"] ;
3 -> 4 ;
5 [label="gini = 0.0\nsamples = 569\nvalue = [0, 569]\nclass = Anomaly", fillcolor="#399de5"] ;
4 -> 5 ;
6 [label="pressure measurement <= 39.747\ngini = 0.395\nsamples = 11729\nvalue = [8549, 3180]\nclass = Normal", fillcolor="#efb083"] ;
4 -> 6 ;
7 [label="pressure measurement <= 0.582\ngini = 0.383\nsamples = 11523\nvalue = [8549, 2974]\nclass = Normal", fillcolor="#eead7e"] ;
6 -> 7 ;
8 [label="gain <= 88.5\ngini = 0.46\nsamples = 6291\nvalue = [4038, 2253]\nclass = Normal", fillcolor="#f4c7a7"] ;
7 -> 8 ;
9 [label="crc rate <= 12336.5\ngini = 0.002\nsamples = 1144\nvalue = [1, 1143]\nclass = Anomaly", fillcolor="#399de5"] ;
8 -> 9 ;
10 [label="pressure measurement <= 0.321\ngini = 0.049\nsamples = 40\nvalue = [1, 39]\nclass = Anomaly", fillcolor="#3ea0e6"] ;
9 -> 10 ;
11 [label="gini = 0.0\nsamples = 37\nvalue = [0, 37]\nclass = Anomaly", fillcolor="#399de5"] ;
10 -> 11 ;
12 [label="pressure measurement <= 0.543\ngini = 0.444\nsamples = 3\nvalue = [1, 2]\nclass = Anomaly", fillcolor="#9ccef2"] ;
10 -> 12 ;
13 [label="gini = 0.0\nsamples = 1\nvalue = [1, 0]\nclass = Normal", fillcolor="#e58139"] ;
12 -> 13 ;
14 [label="gini = 0.0\nsamples = 2\nvalue = [0, 2]\nclass = Anomaly", fillcolor="#399de5"] ;
12 -> 14 ;
15 [label="gini = 0.0\nsamples = 1104\nvalue = [0, 1104]\nclass = Anomaly", fillcolor="#399de5"] ;
9 -> 15 ;
16 [label="rate <= 0.002\ngini = 0.338\nsamples = 5147\nvalue = [4037, 1110]\nclass = Normal", fillcolor="#eca46f"] ;
8 -> 16 ;
17 [label="setpoint <= 19.75\ngini = 0.308\nsamples = 4986\nvalue = [4037, 949]\nclass = Normal", fillcolor="#eb9f68"] ;
16 -> 17 ;
18 [label="crc rate <= 11913.0\ngini = 0.28\nsamples = 4844\nvalue = [4030, 814]\nclass = Normal", fillcolor="#ea9a61"] ;
17 -> 18 ;
19 [label="gini = 0.0\nsamples = 94\nvalue = [0, 94]\nclass = Anomaly", fillcolor="#399de5"] ;
18 -> 19 ;
20 [label="cycle time <= 0.25\ngini = 0.257\nsamples = 4750\nvalue = [4030, 720]\nclass = Normal", fillcolor="#ea985c"] ;
18 -> 20 ;
21 [label="(...)", fillcolor="#C0C0C0"] ;
20 -> 21 ;
22 [label="(...)", fillcolor="#C0C0C0"] ;
20 -> 22 ;
381 [label="reset rate <= 0.243\ngini = 0.094\nsamples = 142\nvalue = [7, 135]\nclass = Anomaly", fillcolor="#43a2e6"] ;
17 -> 381 ;
382 [label="reset rate <= 0.227\ngini = 0.384\nsamples = 27\nvalue = [7, 20]\nclass = Anomaly", fillcolor="#7ebfee"] ;
381 -> 382 ;
383 [label="(...)", fillcolor="#C0C0C0"] ;
382 -> 383 ;
384 [label="(...)", fillcolor="#C0C0C0"] ;
382 -> 384 ;
387 [label="gini = 0.0\nsamples = 115\nvalue = [0, 115]\nclass = Anomaly", fillcolor="#399de5"] ;
381 -> 387 ;
388 [label="gini = 0.0\nsamples = 161\nvalue = [0, 161]\nclass = Anomaly", fillcolor="#399de5"] ;
16 -> 388 ;
389 [label="pressure measurement <= 0.691\ngini = 0.238\nsamples = 5232\nvalue = [4511, 721]\nclass = Normal", fillcolor="#e99559"] ;
7 -> 389 ;
390 [label="crc rate <= 12474.5\ngini = 0.011\nsamples = 1289\nvalue = [1282, 7]\nclass = Normal", fillcolor="#e5823a"] ;
389 -> 390 ;
391 [label="pressure measurement <= 0.6\ngini = 0.005\nsamples = 1263\nvalue = [1260, 3]\nclass = Normal", fillcolor="#e58139"] ;
390 -> 391 ;
392 [label="gini = 0.0\nsamples = 903\nvalue = [903, 0]\nclass = Normal", fillcolor="#e58139"] ;
391 -> 392 ;
393 [label="crc rate <= 12340.5\ngini = 0.017\nsamples = 360\nvalue = [357, 3]\nclass = Normal", fillcolor="#e5823b"] ;
391 -> 393 ;
394 [label="gini = 0.0\nsamples = 3\nvalue = [0, 3]\nclass = Anomaly", fillcolor="#399de5"] ;
393 -> 394 ;
395 [label="gini = 0.0\nsamples = 357\nvalue = [357, 0]\nclass = Normal", fillcolor="#e58139"] ;
393 -> 395 ;
396 [label="pressure measurement <= 0.658\ngini = 0.26\nsamples = 26\nvalue = [22, 4]\nclass = Normal", fillcolor="#ea985d"] ;
390 -> 396 ;
397 [label="crc rate <= 12720.5\ngini = 0.153\nsamples = 24\nvalue = [22, 2]\nclass = Normal", fillcolor="#e78c4b"] ;
396 -> 397 ;
398 [label="gini = 0.0\nsamples = 1\nvalue = [0, 1]\nclass = Anomaly", fillcolor="#399de5"] ;
397 -> 398 ;
399 [label="pressure measurement <= 0.606\ngini = 0.083\nsamples = 23\nvalue = [22, 1]\nclass = Normal", fillcolor="#e68742"] ;
397 -> 399 ;
400 [label="(...)", fillcolor="#C0C0C0"] ;
399 -> 400 ;
403 [label="(...)", fillcolor="#C0C0C0"] ;
399 -> 403 ;
404 [label="gini = 0.0\nsamples = 2\nvalue = [0, 2]\nclass = Anomaly", fillcolor="#399de5"] ;
396 -> 404 ;
405 [label="pressure measurement <= 4.189\ngini = 0.297\nsamples = 3943\nvalue = [3229, 714]\nclass = Normal", fillcolor="#eb9d65"] ;
389 -> 405 ;
406 [label="crc rate <= 12599.5\ngini = 0.386\nsamples = 1112\nvalue = [822, 290]\nclass = Normal", fillcolor="#eead7f"] ;
405 -> 406 ;
407 [label="crc rate <= 12357.5\ngini = 0.31\nsamples = 819\nvalue = [662, 157]\nclass = Normal", fillcolor="#eb9f68"] ;
406 -> 407 ;
408 [label="pressure measurement <= 2.271\ngini = 0.489\nsamples = 244\nvalue = [140, 104]\nclass = Normal", fillcolor="#f8dfcc"] ;
407 -> 408 ;
409 [label="(...)", fillcolor="#C0C0C0"] ;
408 -> 409 ;
432 [label="(...)", fillcolor="#C0C0C0"] ;
408 -> 432 ;
503 [label="pressure measurement <= 3.36\ngini = 0.167\nsamples = 575\nvalue = [522, 53]\nclass = Normal", fillcolor="#e88e4d"] ;
407 -> 503 ;
504 [label="(...)", fillcolor="#C0C0C0"] ;
503 -> 504 ;
557 [label="(...)", fillcolor="#C0C0C0"] ;
503 -> 557 ;
574 [label="pressure measurement <= 2.002\ngini = 0.496\nsamples = 293\nvalue = [160, 133]\nclass = Normal", fillcolor="#fbeade"] ;
406 -> 574 ;
575 [label="crc rate <= 12866.5\ngini = 0.117\nsamples = 80\nvalue = [5, 75]\nclass = Anomaly", fillcolor="#46a4e7"] ;
574 -> 575 ;
576 [label="(...)", fillcolor="#C0C0C0"] ;
575 -> 576 ;
581 [label="(...)", fillcolor="#C0C0C0"] ;
575 -> 581 ;
588 [label="pressure measurement <= 2.23\ngini = 0.396\nsamples = 213\nvalue = [155, 58]\nclass = Normal", fillcolor="#efb083"] ;
574 -> 588 ;
589 [label="(...)", fillcolor="#C0C0C0"] ;
588 -> 589 ;
598 [label="(...)", fillcolor="#C0C0C0"] ;
588 -> 598 ;
677 [label="pressure measurement <= 8.875\ngini = 0.255\nsamples = 2831\nvalue = [2407, 424]\nclass = Normal", fillcolor="#ea975c"] ;
405 -> 677 ;
678 [label="crc rate <= 12867.5\ngini = 0.113\nsamples = 832\nvalue = [782, 50]\nclass = Normal", fillcolor="#e78946"] ;
677 -> 678 ;
679 [label="pressure measurement <= 4.452\ngini = 0.109\nsamples = 815\nvalue = [768, 47]\nclass = Normal", fillcolor="#e78945"] ;
678 -> 679 ;
680 [label="(...)", fillcolor="#C0C0C0"] ;
679 -> 680 ;
689 [label="(...)", fillcolor="#C0C0C0"] ;
679 -> 689 ;
854 [label="pressure measurement <= 5.263\ngini = 0.291\nsamples = 17\nvalue = [14, 3]\nclass = Normal", fillcolor="#eb9c63"] ;
678 -> 854 ;
855 [label="(...)", fillcolor="#C0C0C0"] ;
854 -> 855 ;
856 [label="(...)", fillcolor="#C0C0C0"] ;
854 -> 856 ;
863 [label="pressure measurement <= 8.918\ngini = 0.304\nsamples = 1999\nvalue = [1625, 374]\nclass = Normal", fillcolor="#eb9e67"] ;
677 -> 863 ;
864 [label="pressure measurement <= 8.907\ngini = 0.104\nsamples = 73\nvalue = [4, 69]\nclass = Anomaly", fillcolor="#44a3e7"] ;
863 -> 864 ;
865 [label="(...)", fillcolor="#C0C0C0"] ;
864 -> 865 ;
866 [label="(...)", fillcolor="#C0C0C0"] ;
864 -> 866 ;
871 [label="pressure measurement <= 23.777\ngini = 0.267\nsamples = 1926\nvalue = [1621, 305]\nclass = Normal", fillcolor="#ea995e"] ;
863 -> 871 ;
872 [label="(...)", fillcolor="#C0C0C0"] ;
871 -> 872 ;
1353 [label="(...)", fillcolor="#C0C0C0"] ;
871 -> 1353 ;
1476 [label="gini = 0.0\nsamples = 206\nvalue = [0, 206]\nclass = Anomaly", fillcolor="#399de5"] ;
6 -> 1476 ;
1477 [label="pressure measurement <= -0.5\ngini = 0.006\nsamples = 34776\nvalue = [34672, 104]\nclass = Normal", fillcolor="#e5813a"] ;
3 -> 1477 ;
1478 [label="setpoint <= 2.58\ngini = 0.002\nsamples = 34646\nvalue = [34611, 35]\nclass = Normal", fillcolor="#e58139"] ;
1477 -> 1478 ;
1479 [label="gini = 0.0\nsamples = 34478\nvalue = [34478, 0]\nclass = Normal", fillcolor="#e58139"] ;
1478 -> 1479 ;
1480 [label="cycle time <= 0.555\ngini = 0.33\nsamples = 168\nvalue = [133, 35]\nclass = Normal", fillcolor="#eca26d"] ;
1478 -> 1480 ;
1481 [label="gini = 0.0\nsamples = 5\nvalue = [0, 5]\nclass = Anomaly", fillcolor="#399de5"] ;
1480 -> 1481 ;
1482 [label="gain <= 88.5\ngini = 0.3\nsamples = 163\nvalue = [133, 30]\nclass = Normal", fillcolor="#eb9d66"] ;
1480 -> 1482 ;
1483 [label="gini = 0.0\nsamples = 4\nvalue = [0, 4]\nclass = Anomaly", fillcolor="#399de5"] ;
1482 -> 1483 ;
1484 [label="rate <= 0.15\ngini = 0.274\nsamples = 159\nvalue = [133, 26]\nclass = Normal", fillcolor="#ea9a60"] ;
1482 -> 1484 ;
1485 [label="setpoint <= 19.75\ngini = 0.251\nsamples = 156\nvalue = [133, 23]\nclass = Normal", fillcolor="#e9975b"] ;
1484 -> 1485 ;
1486 [label="setpoint <= 3.605\ngini = 0.227\nsamples = 153\nvalue = [133, 20]\nclass = Normal", fillcolor="#e99457"] ;
1485 -> 1486 ;
1487 [label="gini = 0.0\nsamples = 2\nvalue = [0, 2]\nclass = Anomaly", fillcolor="#399de5"] ;
1486 -> 1487 ;
1488 [label="reset rate <= 0.507\ngini = 0.21\nsamples = 151\nvalue = [133, 18]\nclass = Normal", fillcolor="#e99254"] ;
1486 -> 1488 ;
1489 [label="(...)", fillcolor="#C0C0C0"] ;
1488 -> 1489 ;
1504 [label="(...)", fillcolor="#C0C0C0"] ;
1488 -> 1504 ;
1505 [label="gini = 0.0\nsamples = 3\nvalue = [0, 3]\nclass = Anomaly", fillcolor="#399de5"] ;
1485 -> 1505 ;
1506 [label="gini = 0.0\nsamples = 3\nvalue = [0, 3]\nclass = Anomaly", fillcolor="#399de5"] ;
1484 -> 1506 ;
1507 [label="pressure measurement <= 0.865\ngini = 0.498\nsamples = 130\nvalue = [61, 69]\nclass = Anomaly", fillcolor="#e8f4fc"] ;
1477 -> 1507 ;
1508 [label="gini = 0.0\nsamples = 54\nvalue = [0, 54]\nclass = Anomaly", fillcolor="#399de5"] ;
1507 -> 1508 ;
1509 [label="pressure measurement <= 50.739\ngini = 0.317\nsamples = 76\nvalue = [61, 15]\nclass = Normal", fillcolor="#eba06a"] ;
1507 -> 1509 ;
1510 [label="pressure measurement <= 4.869\ngini = 0.275\nsamples = 73\nvalue = [61, 12]\nclass = Normal", fillcolor="#ea9a60"] ;
1509 -> 1510 ;
1511 [label="pressure measurement <= 1.285\ngini = 0.454\nsamples = 23\nvalue = [15, 8]\nclass = Normal", fillcolor="#f3c4a3"] ;
1510 -> 1511 ;
1512 [label="gini = 0.0\nsamples = 10\nvalue = [10, 0]\nclass = Normal", fillcolor="#e58139"] ;
1511 -> 1512 ;
1513 [label="pressure measurement <= 2.652\ngini = 0.473\nsamples = 13\nvalue = [5, 8]\nclass = Anomaly", fillcolor="#b5daf5"] ;
1511 -> 1513 ;
1514 [label="gini = 0.0\nsamples = 6\nvalue = [0, 6]\nclass = Anomaly", fillcolor="#399de5"] ;
1513 -> 1514 ;
1515 [label="pressure measurement <= 3.393\ngini = 0.408\nsamples = 7\nvalue = [5, 2]\nclass = Normal", fillcolor="#efb388"] ;
1513 -> 1515 ;
1516 [label="gini = 0.0\nsamples = 4\nvalue = [4, 0]\nclass = Normal", fillcolor="#e58139"] ;
1515 -> 1516 ;
1517 [label="pressure measurement <= 3.554\ngini = 0.444\nsamples = 3\nvalue = [1, 2]\nclass = Anomaly", fillcolor="#9ccef2"] ;
1515 -> 1517 ;
1518 [label="(...)", fillcolor="#C0C0C0"] ;
1517 -> 1518 ;
1519 [label="(...)", fillcolor="#C0C0C0"] ;
1517 -> 1519 ;
1522 [label="pressure measurement <= 27.076\ngini = 0.147\nsamples = 50\nvalue = [46, 4]\nclass = Normal", fillcolor="#e78c4a"] ;
1510 -> 1522 ;
1523 [label="pressure measurement <= 15.782\ngini = 0.085\nsamples = 45\nvalue = [43, 2]\nclass = Normal", fillcolor="#e68742"] ;
1522 -> 1523 ;
1524 [label="pressure measurement <= 15.633\ngini = 0.128\nsamples = 29\nvalue = [27, 2]\nclass = Normal", fillcolor="#e78a48"] ;
1523 -> 1524 ;
1525 [label="pressure measurement <= 10.978\ngini = 0.069\nsamples = 28\nvalue = [27, 1]\nclass = Normal", fillcolor="#e68640"] ;
1524 -> 1525 ;
1526 [label="(...)", fillcolor="#C0C0C0"] ;
1525 -> 1526 ;
1527 [label="(...)", fillcolor="#C0C0C0"] ;
1525 -> 1527 ;
1530 [label="gini = 0.0\nsamples = 1\nvalue = [0, 1]\nclass = Anomaly", fillcolor="#399de5"] ;
1524 -> 1530 ;
1531 [label="gini = 0.0\nsamples = 16\nvalue = [16, 0]\nclass = Normal", fillcolor="#e58139"] ;
1523 -> 1531 ;
1532 [label="pressure measurement <= 28.643\ngini = 0.48\nsamples = 5\nvalue = [3, 2]\nclass = Normal", fillcolor="#f6d5bd"] ;
1522 -> 1532 ;
1533 [label="gini = 0.0\nsamples = 2\nvalue = [0, 2]\nclass = Anomaly", fillcolor="#399de5"] ;
1532 -> 1533 ;
1534 [label="gini = 0.0\nsamples = 3\nvalue = [3, 0]\nclass = Normal", fillcolor="#e58139"] ;
1532 -> 1534 ;
1535 [label="gini = 0.0\nsamples = 3\nvalue = [0, 3]\nclass = Anomaly", fillcolor="#399de5"] ;
1509 -> 1535 ;
1536 [label="pressure measurement <= 39.48\ngini = 0.384\nsamples = 86512\nvalue = [64129, 22383]\nclass = Normal", fillcolor="#eead7e"] ;
2 -> 1536 ;
1537 [label="rate <= 0.001\ngini = 0.376\nsamples = 85644\nvalue = [64127, 21517]\nclass = Normal", fillcolor="#eeab7b"] ;
1536 -> 1537 ;
1538 [label="pressure measurement <= 0.561\ngini = 0.37\nsamples = 84995\nvalue = [64127, 20868]\nclass = Normal", fillcolor="#edaa79"] ;
1537 -> 1538 ;
1539 [label="function <= 9.5\ngini = 0.406\nsamples = 62576\nvalue = [44889, 17687]\nclass = Normal", fillcolor="#efb387"] ;
1538 -> 1539 ;
1540 [label="pressure measurement <= 0.506\ngini = 0.09\nsamples = 4702\nvalue = [222, 4480]\nclass = Anomaly", fillcolor="#43a2e6"] ;
1539 -> 1540 ;
1541 [label="pressure measurement <= 0.472\ngini = 0.001\nsamples = 4135\nvalue = [2, 4133]\nclass = Anomaly", fillcolor="#399de5"] ;
1540 -> 1541 ;
1542 [label="gini = 0.0\nsamples = 4122\nvalue = [0, 4122]\nclass = Anomaly", fillcolor="#399de5"] ;
1541 -> 1542 ;
1543 [label="pressure measurement <= 0.498\ngini = 0.26\nsamples = 13\nvalue = [2, 11]\nclass = Anomaly", fillcolor="#5dafea"] ;
1541 -> 1543 ;
1544 [label="gini = 0.0\nsamples = 2\nvalue = [2, 0]\nclass = Normal", fillcolor="#e58139"] ;
1543 -> 1544 ;
1545 [label="gini = 0.0\nsamples = 11\nvalue = [0, 11]\nclass = Anomaly", fillcolor="#399de5"] ;
1543 -> 1545 ;
1546 [label="pressure measurement <= 0.552\ngini = 0.475\nsamples = 567\nvalue = [220, 347]\nclass = Anomaly", fillcolor="#b7dbf5"] ;
1540 -> 1546 ;
1547 [label="pressure measurement <= 0.54\ngini = 0.189\nsamples = 246\nvalue = [220, 26]\nclass = Normal", fillcolor="#e89050"] ;
1546 -> 1547 ;
1548 [label="crc rate <= 14008.0\ngini = 0.438\nsamples = 74\nvalue = [50, 24]\nclass = Normal", fillcolor="#f1bd98"] ;
1547 -> 1548 ;
1549 [label="gini = 0.0\nsamples = 11\nvalue = [0, 11]\nclass = Anomaly", fillcolor="#399de5"] ;
1548 -> 1549 ;
1550 [label="pressure measurement <= 0.53\ngini = 0.328\nsamples = 63\nvalue = [50, 13]\nclass = Normal", fillcolor="#eca26c"] ;
1548 -> 1550 ;
1551 [label="(...)", fillcolor="#C0C0C0"] ;
1550 -> 1551 ;
1562 [label="(...)", fillcolor="#C0C0C0"] ;
1550 -> 1562 ;
1563 [label="pressure measurement <= 0.549\ngini = 0.023\nsamples = 172\nvalue = [170, 2]\nclass = Normal", fillcolor="#e5823b"] ;
1547 -> 1563 ;
1564 [label="pressure measurement <= 0.544\ngini = 0.083\nsamples = 46\nvalue = [44, 2]\nclass = Normal", fillcolor="#e68742"] ;
1563 -> 1564 ;
1565 [label="(...)", fillcolor="#C0C0C0"] ;
1564 -> 1565 ;
1566 [label="(...)", fillcolor="#C0C0C0"] ;
1564 -> 1566 ;
1567 [label="gini = 0.0\nsamples = 126\nvalue = [126, 0]\nclass = Normal", fillcolor="#e58139"] ;
1563 -> 1567 ;
1568 [label="gini = 0.0\nsamples = 321\nvalue = [0, 321]\nclass = Anomaly", fillcolor="#399de5"] ;
1546 -> 1568 ;
1569 [label="setpoint <= 19.95\ngini = 0.352\nsamples = 57874\nvalue = [44667, 13207]\nclass = Normal", fillcolor="#eda674"] ;
1539 -> 1569 ;
1570 [label="reset rate <= 0.4\ngini = 0.344\nsamples = 57335\nvalue = [44667, 12668]\nclass = Normal", fillcolor="#eca571"] ;
1569 -> 1570 ;
1571 [label="crc rate <= 18045.0\ngini = 0.338\nsamples = 56898\nvalue = [44667, 12231]\nclass = Normal", fillcolor="#eca46f"] ;
1570 -> 1571 ;
1572 [label="cycle time <= 1.528\ngini = 0.331\nsamples = 56507\nvalue = [44667, 11840]\nclass = Normal", fillcolor="#eca26d"] ;
1571 -> 1572 ;
1573 [label="gain <= 88.5\ngini = 0.325\nsamples = 56119\nvalue = [44667, 11452]\nclass = Normal", fillcolor="#eca16c"] ;
1572 -> 1573 ;
1574 [label="(...)", fillcolor="#C0C0C0"] ;
1573 -> 1574 ;
1577 [label="(...)", fillcolor="#C0C0C0"] ;
1573 -> 1577 ;
3260 [label="gini = 0.0\nsamples = 388\nvalue = [0, 388]\nclass = Anomaly", fillcolor="#399de5"] ;
1572 -> 3260 ;
3261 [label="gini = 0.0\nsamples = 391\nvalue = [0, 391]\nclass = Anomaly", fillcolor="#399de5"] ;
1571 -> 3261 ;
3262 [label="gini = 0.0\nsamples = 437\nvalue = [0, 437]\nclass = Anomaly", fillcolor="#399de5"] ;
1570 -> 3262 ;
3263 [label="gini = 0.0\nsamples = 539\nvalue = [0, 539]\nclass = Anomaly", fillcolor="#399de5"] ;
1569 -> 3263 ;
3264 [label="pressure measurement <= 0.77\ngini = 0.244\nsamples = 22419\nvalue = [19238, 3181]\nclass = Normal", fillcolor="#e9965a"] ;
1538 -> 3264 ;
3265 [label="crc rate <= 17459.5\ngini = 0.041\nsamples = 3902\nvalue = [3820, 82]\nclass = Normal", fillcolor="#e6843d"] ;
3264 -> 3265 ;
3266 [label="crc rate <= 13124.0\ngini = 0.027\nsamples = 3841\nvalue = [3788, 53]\nclass = Normal", fillcolor="#e5833c"] ;
3265 -> 3266 ;
3267 [label="gini = 0.0\nsamples = 8\nvalue = [0, 8]\nclass = Anomaly", fillcolor="#399de5"] ;
3266 -> 3267 ;
3268 [label="pressure measurement <= 0.66\ngini = 0.023\nsamples = 3833\nvalue = [3788, 45]\nclass = Normal", fillcolor="#e5823b"] ;
3266 -> 3268 ;
3269 [label="crc rate <= 17217.5\ngini = 0.012\nsamples = 3283\nvalue = [3263, 20]\nclass = Normal", fillcolor="#e5823a"] ;
3268 -> 3269 ;
3270 [label="pressure measurement <= 0.635\ngini = 0.011\nsamples = 3280\nvalue = [3262, 18]\nclass = Normal", fillcolor="#e5823a"] ;
3269 -> 3270 ;
3271 [label="(...)", fillcolor="#C0C0C0"] ;
3270 -> 3271 ;
3302 [label="(...)", fillcolor="#C0C0C0"] ;
3270 -> 3302 ;
3307 [label="pressure measurement <= 0.605\ngini = 0.444\nsamples = 3\nvalue = [1, 2]\nclass = Anomaly", fillcolor="#9ccef2"] ;
3269 -> 3307 ;
3308 [label="(...)", fillcolor="#C0C0C0"] ;
3307 -> 3308 ;
3309 [label="(...)", fillcolor="#C0C0C0"] ;
3307 -> 3309 ;
3310 [label="pressure measurement <= 0.666\ngini = 0.087\nsamples = 550\nvalue = [525, 25]\nclass = Normal", fillcolor="#e68742"] ;
3268 -> 3310 ;
3311 [label="gini = 0.0\nsamples = 2\nvalue = [0, 2]\nclass = Anomaly", fillcolor="#399de5"] ;
3310 -> 3311 ;
3312 [label="crc rate <= 13627.5\ngini = 0.08\nsamples = 548\nvalue = [525, 23]\nclass = Normal", fillcolor="#e68742"] ;
3310 -> 3312 ;
3313 [label="(...)", fillcolor="#C0C0C0"] ;
3312 -> 3313 ;
3314 [label="(...)", fillcolor="#C0C0C0"] ;
3312 -> 3314 ;
3323 [label="pressure measurement <= 0.6\ngini = 0.499\nsamples = 61\nvalue = [32, 29]\nclass = Normal", fillcolor="#fdf3ec"] ;
3265 -> 3323 ;
3324 [label="pressure measurement <= 0.578\ngini = 0.137\nsamples = 27\nvalue = [25, 2]\nclass = Normal", fillcolor="#e78b49"] ;
3323 -> 3324 ;
3325 [label="gini = 0.0\nsamples = 2\nvalue = [0, 2]\nclass = Anomaly", fillcolor="#399de5"] ;
3324 -> 3325 ;
3326 [label="gini = 0.0\nsamples = 25\nvalue = [25, 0]\nclass = Normal", fillcolor="#e58139"] ;
3324 -> 3326 ;
3327 [label="pressure measurement <= 0.644\ngini = 0.327\nsamples = 34\nvalue = [7, 27]\nclass = Anomaly", fillcolor="#6cb6ec"] ;
3323 -> 3327 ;
3328 [label="crc rate <= 17727.0\ngini = 0.498\nsamples = 15\nvalue = [7, 8]\nclass = Anomaly", fillcolor="#e6f3fc"] ;
3327 -> 3328 ;
3329 [label="pressure measurement <= 0.628\ngini = 0.346\nsamples = 9\nvalue = [7, 2]\nclass = Normal", fillcolor="#eca572"] ;
3328 -> 3329 ;
3330 [label="(...)", fillcolor="#C0C0C0"] ;
3329 -> 3330 ;
3331 [label="(...)", fillcolor="#C0C0C0"] ;
3329 -> 3331 ;
3332 [label="gini = 0.0\nsamples = 6\nvalue = [0, 6]\nclass = Anomaly", fillcolor="#399de5"] ;
3328 -> 3332 ;
3333 [label="gini = 0.0\nsamples = 19\nvalue = [0, 19]\nclass = Anomaly", fillcolor="#399de5"] ;
3327 -> 3333 ;
3334 [label="pressure measurement <= 1.112\ngini = 0.279\nsamples = 18517\nvalue = [15418, 3099]\nclass = Normal", fillcolor="#ea9a61"] ;
3264 -> 3334 ;
3335 [label="pressure measurement <= 0.793\ngini = 0.158\nsamples = 220\nvalue = [19, 201]\nclass = Anomaly", fillcolor="#4ca6e7"] ;
3334 -> 3335 ;
3336 [label="pressure measurement <= 0.792\ngini = 0.355\nsamples = 13\nvalue = [10, 3]\nclass = Normal", fillcolor="#eda774"] ;
3335 -> 3336 ;
3337 [label="gini = 0.0\nsamples = 3\nvalue = [0, 3]\nclass = Anomaly", fillcolor="#399de5"] ;
3336 -> 3337 ;
3338 [label="gini = 0.0\nsamples = 10\nvalue = [10, 0]\nclass = Normal", fillcolor="#e58139"] ;
3336 -> 3338 ;
3339 [label="pressure measurement <= 1.101\ngini = 0.083\nsamples = 207\nvalue = [9, 198]\nclass = Anomaly", fillcolor="#42a1e6"] ;
3335 -> 3339 ;
3340 [label="pressure measurement <= 0.839\ngini = 0.067\nsamples = 202\nvalue = [7, 195]\nclass = Anomaly", fillcolor="#40a1e6"] ;
3339 -> 3340 ;
3341 [label="pressure measurement <= 0.839\ngini = 0.255\nsamples = 40\nvalue = [6, 34]\nclass = Anomaly", fillcolor="#5caeea"] ;
3340 -> 3341 ;
3342 [label="(...)", fillcolor="#C0C0C0"] ;
3341 -> 3342 ;
3355 [label="(...)", fillcolor="#C0C0C0"] ;
3341 -> 3355 ;
3356 [label="pressure measurement <= 1.032\ngini = 0.012\nsamples = 162\nvalue = [1, 161]\nclass = Anomaly", fillcolor="#3a9ee5"] ;
3340 -> 3356 ;
3357 [label="(...)", fillcolor="#C0C0C0"] ;
3356 -> 3357 ;
3358 [label="(...)", fillcolor="#C0C0C0"] ;
3356 -> 3358 ;
3361 [label="pressure measurement <= 1.104\ngini = 0.48\nsamples = 5\nvalue = [2, 3]\nclass = Anomaly", fillcolor="#bddef6"] ;
3339 -> 3361 ;
3362 [label="gini = 0.0\nsamples = 2\nvalue = [2, 0]\nclass = Normal", fillcolor="#e58139"] ;
3361 -> 3362 ;
3363 [label="gini = 0.0\nsamples = 3\nvalue = [0, 3]\nclass = Anomaly", fillcolor="#399de5"] ;
3361 -> 3363 ;
3364 [label="pressure measurement <= 24.115\ngini = 0.267\nsamples = 18297\nvalue = [15399, 2898]\nclass = Normal", fillcolor="#ea995e"] ;
3334 -> 3364 ;
3365 [label="pressure measurement <= 8.94\ngini = 0.25\nsamples = 17338\nvalue = [14793, 2545]\nclass = Normal", fillcolor="#e9975b"] ;
3364 -> 3365 ;
3366 [label="pressure measurement <= 8.874\ngini = 0.287\nsamples = 9691\nvalue = [8005, 1686]\nclass = Normal", fillcolor="#ea9c63"] ;
3365 -> 3366 ;
3367 [label="pressure measurement <= 4.551\ngini = 0.249\nsamples = 9260\nvalue = [7913, 1347]\nclass = Normal", fillcolor="#e9965b"] ;
3366 -> 3367 ;
3368 [label="(...)", fillcolor="#C0C0C0"] ;
3367 -> 3368 ;
4471 [label="(...)", fillcolor="#C0C0C0"] ;
3367 -> 4471 ;
5288 [label="pressure measurement <= 8.897\ngini = 0.336\nsamples = 431\nvalue = [92, 339]\nclass = Anomaly", fillcolor="#6fb8ec"] ;
3366 -> 5288 ;
5289 [label="(...)", fillcolor="#C0C0C0"] ;
5288 -> 5289 ;
5320 [label="(...)", fillcolor="#C0C0C0"] ;
5288 -> 5320 ;
5351 [label="pressure measurement <= 9.58\ngini = 0.199\nsamples = 7647\nvalue = [6788, 859]\nclass = Normal", fillcolor="#e89152"] ;
3365 -> 5351 ;
5352 [label="pressure measurement <= 9.388\ngini = 0.06\nsamples = 779\nvalue = [755, 24]\nclass = Normal", fillcolor="#e6853f"] ;
5351 -> 5352 ;
5353 [label="(...)", fillcolor="#C0C0C0"] ;
5352 -> 5353 ;
5418 [label="(...)", fillcolor="#C0C0C0"] ;
5352 -> 5418 ;
5423 [label="pressure measurement <= 20.121\ngini = 0.214\nsamples = 6868\nvalue = [6033, 835]\nclass = Normal", fillcolor="#e99254"] ;
5351 -> 5423 ;
5424 [label="(...)", fillcolor="#C0C0C0"] ;
5423 -> 5424 ;
6995 [label="(...)", fillcolor="#C0C0C0"] ;
5423 -> 6995 ;
7286 [label="pressure measurement <= 32.509\ngini = 0.465\nsamples = 959\nvalue = [606, 353]\nclass = Normal", fillcolor="#f4caac"] ;
3364 -> 7286 ;
7287 [label="pressure measurement <= 28.121\ngini = 0.484\nsamples = 812\nvalue = [479, 333]\nclass = Normal", fillcolor="#f7d9c3"] ;
7286 -> 7287 ;
7288 [label="pressure measurement <= 24.249\ngini = 0.436\nsamples = 465\nvalue = [316, 149]\nclass = Normal", fillcolor="#f1bc96"] ;
7287 -> 7288 ;
7289 [label="(...)", fillcolor="#C0C0C0"] ;
7288 -> 7289 ;
7314 [label="(...)", fillcolor="#C0C0C0"] ;
7288 -> 7314 ;
7537 [label="pressure measurement <= 28.241\ngini = 0.498\nsamples = 347\nvalue = [163, 184]\nclass = Anomaly", fillcolor="#e8f4fc"] ;
7287 -> 7537 ;
7538 [label="(...)", fillcolor="#C0C0C0"] ;
7537 -> 7538 ;
7551 [label="(...)", fillcolor="#C0C0C0"] ;
7537 -> 7551 ;
7754 [label="pressure measurement <= 34.92\ngini = 0.235\nsamples = 147\nvalue = [127, 20]\nclass = Normal", fillcolor="#e99558"] ;
7286 -> 7754 ;
7755 [label="crc rate <= 14011.5\ngini = 0.121\nsamples = 62\nvalue = [58, 4]\nclass = Normal", fillcolor="#e78a47"] ;
7754 -> 7755 ;
7756 [label="(...)", fillcolor="#C0C0C0"] ;
7755 -> 7756 ;
7769 [label="(...)", fillcolor="#C0C0C0"] ;
7755 -> 7769 ;
7770 [label="pressure measurement <= 35.872\ngini = 0.306\nsamples = 85\nvalue = [69, 16]\nclass = Normal", fillcolor="#eb9e67"] ;
7754 -> 7770 ;
7771 [label="(...)", fillcolor="#C0C0C0"] ;
7770 -> 7771 ;
7778 [label="(...)", fillcolor="#C0C0C0"] ;
7770 -> 7778 ;
7807 [label="gini = 0.0\nsamples = 649\nvalue = [0, 649]\nclass = Anomaly", fillcolor="#399de5"] ;
1537 -> 7807 ;
7808 [label="pressure measurement <= 39.701\ngini = 0.005\nsamples = 868\nvalue = [2, 866]\nclass = Anomaly", fillcolor="#399de5"] ;
1536 -> 7808 ;
7809 [label="pressure measurement <= 39.503\ngini = 0.444\nsamples = 6\nvalue = [2, 4]\nclass = Anomaly", fillcolor="#9ccef2"] ;
7808 -> 7809 ;
7810 [label="gini = 0.0\nsamples = 4\nvalue = [0, 4]\nclass = Anomaly", fillcolor="#399de5"] ;
7809 -> 7810 ;
7811 [label="gini = 0.0\nsamples = 2\nvalue = [2, 0]\nclass = Normal", fillcolor="#e58139"] ;
7809 -> 7811 ;
7812 [label="gini = 0.0\nsamples = 862\nvalue = [0, 862]\nclass = Anomaly", fillcolor="#399de5"] ;
7808 -> 7812 ;
}