digraph Tree {
node [shape=box, style="filled, rounded", color="black", fontname="helvetica"] ;
edge [fontname="helvetica"] ;
0 [label="length <= 15.0\ngini = 0.34\nsamples = 137314\nvalue = [107466, 29848]\nclass = Normal", fillcolor="#eca470"] ;
1 [label="gini = 0.0\nsamples = 3706\nvalue = [0, 3706]\nclass = Anomaly", fillcolor="#399de5"] ;
0 -> 1 [labeldistance=2.5, labelangle=45, headlabel="True"] ;
2 [label="crc rate <= 12869.5\ngini = 0.315\nsamples = 133608\nvalue = [107466, 26142]\nclass = Normal", fillcolor="#eba069"] ;
0 -> 2 [labeldistance=2.5, labelangle=-45, headlabel="False"] ;
3 [label="crc rate <= 12868.5\ngini = 0.147\nsamples = 47300\nvalue = [43521, 3779]\nclass = Normal", fillcolor="#e78c4a"] ;
2 -> 3 ;
4 [label="length <= 31.0\ngini = 0.416\nsamples = 12442\nvalue = [8769, 3673]\nclass = Normal", fillcolor="#f0b68c"] ;
3 -> 4 ;
5 [label="gini = 0.0\nsamples = 543\nvalue = [0, 543]\nclass = Anomaly", fillcolor="#399de5"] ;
4 -> 5 ;
6 [label="pressure measurement <= 0.584\ngini = 0.388\nsamples = 11899\nvalue = [8769, 3130]\nclass = Normal", fillcolor="#eeae80"] ;
4 -> 6 ;
7 [label="gain <= 88.5\ngini = 0.455\nsamples = 6416\nvalue = [4167, 2249]\nclass = Normal", fillcolor="#f3c5a4"] ;
6 -> 7 ;
8 [label="gini = 0.0\nsamples = 1152\nvalue = [0, 1152]\nclass = Anomaly", fillcolor="#399de5"] ;
7 -> 8 ;
9 [label="rate <= 0.002\ngini = 0.33\nsamples = 5264\nvalue = [4167, 1097]\nclass = Normal", fillcolor="#eca26d"] ;
7 -> 9 ;
10 [label="setpoint <= 19.75\ngini = 0.302\nsamples = 5114\nvalue = [4167, 947]\nclass = Normal", fillcolor="#eb9e66"] ;
9 -> 10 ;
11 [label="crc rate <= 12218.0\ngini = 0.278\nsamples = 4990\nvalue = [4157, 833]\nclass = Normal", fillcolor="#ea9a61"] ;
10 -> 11 ;
12 [label="gini = 0.0\nsamples = 96\nvalue = [0, 96]\nclass = Anomaly", fillcolor="#399de5"] ;
11 -> 12 ;
13 [label="reset rate <= 0.398\ngini = 0.256\nsamples = 4894\nvalue = [4157, 737]\nclass = Normal", fillcolor="#ea975c"] ;
11 -> 13 ;
14 [label="cycle time <= 0.25\ngini = 0.233\nsamples = 4803\nvalue = [4157, 646]\nclass = Normal", fillcolor="#e99558"] ;
13 -> 14 ;
15 [label="(...)", fillcolor="#C0C0C0"] ;
14 -> 15 ;
16 [label="(...)", fillcolor="#C0C0C0"] ;
14 -> 16 ;
405 [label="gini = 0.0\nsamples = 91\nvalue = [0, 91]\nclass = Anomaly", fillcolor="#399de5"] ;
13 -> 405 ;
406 [label="reset rate <= 0.243\ngini = 0.148\nsamples = 124\nvalue = [10, 114]\nclass = Anomaly", fillcolor="#4aa6e7"] ;
10 -> 406 ;
407 [label="crc rate <= 12724.5\ngini = 0.48\nsamples = 25\nvalue = [10, 15]\nclass = Anomaly", fillcolor="#bddef6"] ;
406 -> 407 ;
408 [label="system mode <= 0.5\ngini = 0.408\nsamples = 14\nvalue = [10, 4]\nclass = Normal", fillcolor="#efb388"] ;
407 -> 408 ;
409 [label="(...)", fillcolor="#C0C0C0"] ;
408 -> 409 ;
410 [label="(...)", fillcolor="#C0C0C0"] ;
408 -> 410 ;
411 [label="gini = 0.0\nsamples = 11\nvalue = [0, 11]\nclass = Anomaly", fillcolor="#399de5"] ;
407 -> 411 ;
412 [label="gini = 0.0\nsamples = 99\nvalue = [0, 99]\nclass = Anomaly", fillcolor="#399de5"] ;
406 -> 412 ;
413 [label="gini = 0.0\nsamples = 150\nvalue = [0, 150]\nclass = Anomaly", fillcolor="#399de5"] ;
9 -> 413 ;
414 [label="pressure measurement <= 39.07\ngini = 0.27\nsamples = 5483\nvalue = [4602, 881]\nclass = Normal", fillcolor="#ea995f"] ;
6 -> 414 ;
415 [label="pressure measurement <= 0.739\ngini = 0.229\nsamples = 5299\nvalue = [4601, 698]\nclass = Normal", fillcolor="#e99457"] ;
414 -> 415 ;
416 [label="crc rate <= 12603.0\ngini = 0.011\nsamples = 1406\nvalue = [1398, 8]\nclass = Normal", fillcolor="#e5823a"] ;
415 -> 416 ;
417 [label="pressure measurement <= 0.699\ngini = 0.001\nsamples = 1381\nvalue = [1380, 1]\nclass = Normal", fillcolor="#e58139"] ;
416 -> 417 ;
418 [label="gini = 0.0\nsamples = 1292\nvalue = [1292, 0]\nclass = Normal", fillcolor="#e58139"] ;
417 -> 418 ;
419 [label="crc rate <= 12356.5\ngini = 0.022\nsamples = 89\nvalue = [88, 1]\nclass = Normal", fillcolor="#e5823b"] ;
417 -> 419 ;
420 [label="gini = 0.0\nsamples = 1\nvalue = [0, 1]\nclass = Anomaly", fillcolor="#399de5"] ;
419 -> 420 ;
421 [label="gini = 0.0\nsamples = 88\nvalue = [88, 0]\nclass = Normal", fillcolor="#e58139"] ;
419 -> 421 ;
422 [label="pressure measurement <= 0.653\ngini = 0.403\nsamples = 25\nvalue = [18, 7]\nclass = Normal", fillcolor="#efb286"] ;
416 -> 422 ;
423 [label="pressure measurement <= 0.606\ngini = 0.1\nsamples = 19\nvalue = [18, 1]\nclass = Normal", fillcolor="#e68844"] ;
422 -> 423 ;
424 [label="crc rate <= 12851.0\ngini = 0.375\nsamples = 4\nvalue = [3, 1]\nclass = Normal", fillcolor="#eeab7b"] ;
423 -> 424 ;
425 [label="(...)", fillcolor="#C0C0C0"] ;
424 -> 425 ;
426 [label="(...)", fillcolor="#C0C0C0"] ;
424 -> 426 ;
427 [label="gini = 0.0\nsamples = 15\nvalue = [15, 0]\nclass = Normal", fillcolor="#e58139"] ;
423 -> 427 ;
428 [label="gini = 0.0\nsamples = 6\nvalue = [0, 6]\nclass = Anomaly", fillcolor="#399de5"] ;
422 -> 428 ;
429 [label="pressure measurement <= 1.168\ngini = 0.292\nsamples = 3893\nvalue = [3203, 690]\nclass = Normal", fillcolor="#eb9c64"] ;
415 -> 429 ;
430 [label="pressure measurement <= 0.789\ngini = 0.442\nsamples = 79\nvalue = [26, 53]\nclass = Anomaly", fillcolor="#9acdf2"] ;
429 -> 430 ;
431 [label="pressure measurement <= 0.781\ngini = 0.204\nsamples = 26\nvalue = [23, 3]\nclass = Normal", fillcolor="#e89153"] ;
430 -> 431 ;
432 [label="pressure measurement <= 0.764\ngini = 0.375\nsamples = 4\nvalue = [1, 3]\nclass = Anomaly", fillcolor="#7bbeee"] ;
431 -> 432 ;
433 [label="(...)", fillcolor="#C0C0C0"] ;
432 -> 433 ;
434 [label="(...)", fillcolor="#C0C0C0"] ;
432 -> 434 ;
437 [label="gini = 0.0\nsamples = 22\nvalue = [22, 0]\nclass = Normal", fillcolor="#e58139"] ;
431 -> 437 ;
438 [label="pressure measurement <= 1.089\ngini = 0.107\nsamples = 53\nvalue = [3, 50]\nclass = Anomaly", fillcolor="#45a3e7"] ;
430 -> 438 ;
439 [label="gini = 0.0\nsamples = 42\nvalue = [0, 42]\nclass = Anomaly", fillcolor="#399de5"] ;
438 -> 439 ;
440 [label="pressure measurement <= 1.1\ngini = 0.397\nsamples = 11\nvalue = [3, 8]\nclass = Anomaly", fillcolor="#83c2ef"] ;
438 -> 440 ;
441 [label="(...)", fillcolor="#C0C0C0"] ;
440 -> 441 ;
442 [label="(...)", fillcolor="#C0C0C0"] ;
440 -> 442 ;
443 [label="pressure measurement <= 24.214\ngini = 0.278\nsamples = 3814\nvalue = [3177, 637]\nclass = Normal", fillcolor="#ea9a61"] ;
429 -> 443 ;
444 [label="pressure measurement <= 4.383\ngini = 0.265\nsamples = 3622\nvalue = [3053, 569]\nclass = Normal", fillcolor="#ea985e"] ;
443 -> 444 ;
445 [label="crc rate <= 12599.5\ngini = 0.362\nsamples = 1006\nvalue = [767, 239]\nclass = Normal", fillcolor="#eda877"] ;
444 -> 445 ;
446 [label="(...)", fillcolor="#C0C0C0"] ;
445 -> 446 ;
575 [label="(...)", fillcolor="#C0C0C0"] ;
445 -> 575 ;
710 [label="pressure measurement <= 8.875\ngini = 0.22\nsamples = 2616\nvalue = [2286, 330]\nclass = Normal", fillcolor="#e99356"] ;
444 -> 710 ;
711 [label="(...)", fillcolor="#C0C0C0"] ;
710 -> 711 ;
876 [label="(...)", fillcolor="#C0C0C0"] ;
710 -> 876 ;
1349 [label="pressure measurement <= 24.263\ngini = 0.457\nsamples = 192\nvalue = [124, 68]\nclass = Normal", fillcolor="#f3c6a6"] ;
443 -> 1349 ;
1350 [label="gini = 0.0\nsamples = 4\nvalue = [0, 4]\nclass = Anomaly", fillcolor="#399de5"] ;
1349 -> 1350 ;
1351 [label="pressure measurement <= 33.319\ngini = 0.449\nsamples = 188\nvalue = [124, 64]\nclass = Normal", fillcolor="#f2c29f"] ;
1349 -> 1351 ;
1352 [label="(...)", fillcolor="#C0C0C0"] ;
1351 -> 1352 ;
1461 [label="(...)", fillcolor="#C0C0C0"] ;
1351 -> 1461 ;
1472 [label="pressure measurement <= 39.925\ngini = 0.011\nsamples = 184\nvalue = [1, 183]\nclass = Anomaly", fillcolor="#3a9ee5"] ;
414 -> 1472 ;
1473 [label="pressure measurement <= 39.522\ngini = 0.444\nsamples = 3\nvalue = [1, 2]\nclass = Anomaly", fillcolor="#9ccef2"] ;
1472 -> 1473 ;
1474 [label="gini = 0.0\nsamples = 2\nvalue = [0, 2]\nclass = Anomaly", fillcolor="#399de5"] ;
1473 -> 1474 ;
1475 [label="gini = 0.0\nsamples = 1\nvalue = [1, 0]\nclass = Normal", fillcolor="#e58139"] ;
1473 -> 1475 ;
1476 [label="gini = 0.0\nsamples = 181\nvalue = [0, 181]\nclass = Anomaly", fillcolor="#399de5"] ;
1472 -> 1476 ;
1477 [label="pressure measurement <= -0.5\ngini = 0.006\nsamples = 34858\nvalue = [34752, 106]\nclass = Normal", fillcolor="#e5813a"] ;
3 -> 1477 ;
1478 [label="control scheme <= 0.5\ngini = 0.002\nsamples = 34725\nvalue = [34688, 37]\nclass = Normal", fillcolor="#e58139"] ;
1477 -> 1478 ;
1479 [label="gain <= 113.5\ngini = 0.0\nsamples = 34600\nvalue = [34596, 4]\nclass = Normal", fillcolor="#e58139"] ;
1478 -> 1479 ;
1480 [label="gini = 0.0\nsamples = 34593\nvalue = [34593, 0]\nclass = Normal", fillcolor="#e58139"] ;
1479 -> 1480 ;
1481 [label="reset rate <= 0.357\ngini = 0.49\nsamples = 7\nvalue = [3, 4]\nclass = Anomaly", fillcolor="#cee6f8"] ;
1479 -> 1481 ;
1482 [label="gini = 0.0\nsamples = 4\nvalue = [0, 4]\nclass = Anomaly", fillcolor="#399de5"] ;
1481 -> 1482 ;
1483 [label="gini = 0.0\nsamples = 3\nvalue = [3, 0]\nclass = Normal", fillcolor="#e58139"] ;
1481 -> 1483 ;
1484 [label="setpoint <= 13.65\ngini = 0.389\nsamples = 125\nvalue = [92, 33]\nclass = Normal", fillcolor="#eeae80"] ;
1478 -> 1484 ;
1485 [label="cycle time <= 1.085\ngini = 0.311\nsamples = 114\nvalue = [92, 22]\nclass = Normal", fillcolor="#eb9f68"] ;
1484 -> 1485 ;
1486 [label="deadband <= 0.643\ngini = 0.5\nsamples = 20\nvalue = [10, 10]\nclass = Normal", fillcolor="#ffffff"] ;
1485 -> 1486 ;
1487 [label="deadband <= 0.4\ngini = 0.444\nsamples = 15\nvalue = [10, 5]\nclass = Normal", fillcolor="#f2c09c"] ;
1486 -> 1487 ;
1488 [label="gini = 0.0\nsamples = 3\nvalue = [0, 3]\nclass = Anomaly", fillcolor="#399de5"] ;
1487 -> 1488 ;
1489 [label="gain <= 88.0\ngini = 0.278\nsamples = 12\nvalue = [10, 2]\nclass = Normal", fillcolor="#ea9a61"] ;
1487 -> 1489 ;
1490 [label="gini = 0.0\nsamples = 2\nvalue = [0, 2]\nclass = Anomaly", fillcolor="#399de5"] ;
1489 -> 1490 ;
1491 [label="gini = 0.0\nsamples = 10\nvalue = [10, 0]\nclass = Normal", fillcolor="#e58139"] ;
1489 -> 1491 ;
1492 [label="gini = 0.0\nsamples = 5\nvalue = [0, 5]\nclass = Anomaly", fillcolor="#399de5"] ;
1486 -> 1492 ;
1493 [label="system mode <= 0.5\ngini = 0.223\nsamples = 94\nvalue = [82, 12]\nclass = Normal", fillcolor="#e99356"] ;
1485 -> 1493 ;
1494 [label="gini = 0.0\nsamples = 45\nvalue = [45, 0]\nclass = Normal", fillcolor="#e58139"] ;
1493 -> 1494 ;
1495 [label="system mode <= 1.5\ngini = 0.37\nsamples = 49\nvalue = [37, 12]\nclass = Normal", fillcolor="#edaa79"] ;
1493 -> 1495 ;
1496 [label="setpoint <= 9.4\ngini = 0.458\nsamples = 31\nvalue = [20, 11]\nclass = Normal", fillcolor="#f3c6a6"] ;
1495 -> 1496 ;
1497 [label="gini = 0.444\nsamples = 30\nvalue = [20, 10]\nclass = Normal", fillcolor="#f2c09c"] ;
1496 -> 1497 ;
1498 [label="gini = 0.0\nsamples = 1\nvalue = [0, 1]\nclass = Anomaly", fillcolor="#399de5"] ;
1496 -> 1498 ;
1499 [label="reset rate <= 0.634\ngini = 0.105\nsamples = 18\nvalue = [17, 1]\nclass = Normal", fillcolor="#e78845"] ;
1495 -> 1499 ;
1500 [label="gini = 0.0\nsamples = 17\nvalue = [17, 0]\nclass = Normal", fillcolor="#e58139"] ;
1499 -> 1500 ;
1501 [label="gini = 0.0\nsamples = 1\nvalue = [0, 1]\nclass = Anomaly", fillcolor="#399de5"] ;
1499 -> 1501 ;
1502 [label="gini = 0.0\nsamples = 11\nvalue = [0, 11]\nclass = Anomaly", fillcolor="#399de5"] ;
1484 -> 1502 ;
1503 [label="pressure measurement <= 0.865\ngini = 0.499\nsamples = 133\nvalue = [64, 69]\nclass = Anomaly", fillcolor="#f1f8fd"] ;
1477 -> 1503 ;
1504 [label="gini = 0.0\nsamples = 54\nvalue = [0, 54]\nclass = Anomaly", fillcolor="#399de5"] ;
1503 -> 1504 ;
1505 [label="pressure measurement <= 50.739\ngini = 0.308\nsamples = 79\nvalue = [64, 15]\nclass = Normal", fillcolor="#eb9f67"] ;
1503 -> 1505 ;
1506 [label="pressure measurement <= 15.782\ngini = 0.25\nsamples = 75\nvalue = [64, 11]\nclass = Normal", fillcolor="#e9975b"] ;
1505 -> 1506 ;
1507 [label="pressure measurement <= 15.633\ngini = 0.353\nsamples = 48\nvalue = [37, 11]\nclass = Normal", fillcolor="#eda674"] ;
1506 -> 1507 ;
1508 [label="pressure measurement <= 1.713\ngini = 0.335\nsamples = 47\nvalue = [37, 10]\nclass = Normal", fillcolor="#eca36f"] ;
1507 -> 1508 ;
1509 [label="gini = 0.0\nsamples = 7\nvalue = [7, 0]\nclass = Normal", fillcolor="#e58139"] ;
1508 -> 1509 ;
1510 [label="pressure measurement <= 2.65\ngini = 0.375\nsamples = 40\nvalue = [30, 10]\nclass = Normal", fillcolor="#eeab7b"] ;
1508 -> 1510 ;
1511 [label="gini = 0.0\nsamples = 2\nvalue = [0, 2]\nclass = Anomaly", fillcolor="#399de5"] ;
1510 -> 1511 ;
1512 [label="pressure measurement <= 15.106\ngini = 0.332\nsamples = 38\nvalue = [30, 8]\nclass = Normal", fillcolor="#eca36e"] ;
1510 -> 1512 ;
1513 [label="(...)", fillcolor="#C0C0C0"] ;
1512 -> 1513 ;
1526 [label="(...)", fillcolor="#C0C0C0"] ;
1512 -> 1526 ;
1529 [label="gini = 0.0\nsamples = 1\nvalue = [0, 1]\nclass = Anomaly", fillcolor="#399de5"] ;
1507 -> 1529 ;
1530 [label="gini = 0.0\nsamples = 27\nvalue = [27, 0]\nclass = Normal", fillcolor="#e58139"] ;
1506 -> 1530 ;
1531 [label="gini = 0.0\nsamples = 4\nvalue = [0, 4]\nclass = Anomaly", fillcolor="#399de5"] ;
1505 -> 1531 ;
1532 [label="pressure measurement <= 39.48\ngini = 0.384\nsamples = 86308\nvalue = [63945, 22363]\nclass = Normal", fillcolor="#eead7e"] ;
2 -> 1532 ;
1533 [label="rate <= 0.004\ngini = 0.377\nsamples = 85430\nvalue = [63942, 21488]\nclass = Normal", fillcolor="#eeab7c"] ;
1532 -> 1533 ;
1534 [label="pressure measurement <= 0.563\ngini = 0.37\nsamples = 84750\nvalue = [63942, 20808]\nclass = Normal", fillcolor="#edaa79"] ;
1533 -> 1534 ;
1535 [label="function <= 9.5\ngini = 0.405\nsamples = 62433\nvalue = [44801, 17632]\nclass = Normal", fillcolor="#efb387"] ;
1534 -> 1535 ;
1536 [label="pressure measurement <= 0.506\ngini = 0.091\nsamples = 4724\nvalue = [226, 4498]\nclass = Anomaly", fillcolor="#43a2e6"] ;
1535 -> 1536 ;
1537 [label="pressure measurement <= 0.468\ngini = 0.0\nsamples = 4166\nvalue = [1, 4165]\nclass = Anomaly", fillcolor="#399de5"] ;
1536 -> 1537 ;
1538 [label="gini = 0.0\nsamples = 4159\nvalue = [0, 4159]\nclass = Anomaly", fillcolor="#399de5"] ;
1537 -> 1538 ;
1539 [label="crc rate <= 14004.0\ngini = 0.245\nsamples = 7\nvalue = [1, 6]\nclass = Anomaly", fillcolor="#5aade9"] ;
1537 -> 1539 ;
1540 [label="gini = 0.0\nsamples = 1\nvalue = [1, 0]\nclass = Normal", fillcolor="#e58139"] ;
1539 -> 1540 ;
1541 [label="gini = 0.0\nsamples = 6\nvalue = [0, 6]\nclass = Anomaly", fillcolor="#399de5"] ;
1539 -> 1541 ;
1542 [label="pressure measurement <= 0.552\ngini = 0.481\nsamples = 558\nvalue = [225, 333]\nclass = Anomaly", fillcolor="#bfdff7"] ;
1536 -> 1542 ;
1543 [label="crc rate <= 17847.0\ngini = 0.162\nsamples = 247\nvalue = [225, 22]\nclass = Normal", fillcolor="#e88d4c"] ;
1542 -> 1543 ;
1544 [label="crc rate <= 17087.0\ngini = 0.273\nsamples = 135\nvalue = [113, 22]\nclass = Normal", fillcolor="#ea9a60"] ;
1543 -> 1544 ;
1545 [label="pressure measurement <= 0.541\ngini = 0.217\nsamples = 129\nvalue = [113, 16]\nclass = Normal", fillcolor="#e99355"] ;
1544 -> 1545 ;
1546 [label="(...)", fillcolor="#C0C0C0"] ;
1545 -> 1546 ;
1559 [label="(...)", fillcolor="#C0C0C0"] ;
1545 -> 1559 ;
1562 [label="gini = 0.0\nsamples = 6\nvalue = [0, 6]\nclass = Anomaly", fillcolor="#399de5"] ;
1544 -> 1562 ;
1563 [label="gini = 0.0\nsamples = 112\nvalue = [112, 0]\nclass = Normal", fillcolor="#e58139"] ;
1543 -> 1563 ;
1564 [label="gini = 0.0\nsamples = 311\nvalue = [0, 311]\nclass = Anomaly", fillcolor="#399de5"] ;
1542 -> 1564 ;
1565 [label="setpoint <= 19.95\ngini = 0.352\nsamples = 57709\nvalue = [44575, 13134]\nclass = Normal", fillcolor="#eda673"] ;
1535 -> 1565 ;
1566 [label="cycle time <= 1.485\ngini = 0.344\nsamples = 57191\nvalue = [44575, 12616]\nclass = Normal", fillcolor="#eca571"] ;
1565 -> 1566 ;
1567 [label="crc rate <= 18045.0\ngini = 0.337\nsamples = 56760\nvalue = [44568, 12192]\nclass = Normal", fillcolor="#eca36f"] ;
1566 -> 1567 ;
1568 [label="reset rate <= 0.4\ngini = 0.331\nsamples = 56365\nvalue = [44568, 11797]\nclass = Normal", fillcolor="#eca26d"] ;
1567 -> 1568 ;
1569 [label="gain <= 88.5\ngini = 0.324\nsamples = 55974\nvalue = [44568, 11406]\nclass = Normal", fillcolor="#eca16c"] ;
1568 -> 1569 ;
1570 [label="(...)", fillcolor="#C0C0C0"] ;
1569 -> 1570 ;
1573 [label="(...)", fillcolor="#C0C0C0"] ;
1569 -> 1573 ;
3364 [label="gini = 0.0\nsamples = 391\nvalue = [0, 391]\nclass = Anomaly", fillcolor="#399de5"] ;
1568 -> 3364 ;
3365 [label="gini = 0.0\nsamples = 395\nvalue = [0, 395]\nclass = Anomaly", fillcolor="#399de5"] ;
1567 -> 3365 ;
3366 [label="reset rate <= 0.395\ngini = 0.032\nsamples = 431\nvalue = [7, 424]\nclass = Anomaly", fillcolor="#3c9fe5"] ;
1566 -> 3366 ;
3367 [label="gini = 0.0\nsamples = 417\nvalue = [0, 417]\nclass = Anomaly", fillcolor="#399de5"] ;
3366 -> 3367 ;
3368 [label="reset rate <= 0.407\ngini = 0.5\nsamples = 14\nvalue = [7, 7]\nclass = Normal", fillcolor="#ffffff"] ;
3366 -> 3368 ;
3369 [label="gini = 0.0\nsamples = 7\nvalue = [7, 0]\nclass = Normal", fillcolor="#e58139"] ;
3368 -> 3369 ;
3370 [label="gini = 0.0\nsamples = 7\nvalue = [0, 7]\nclass = Anomaly", fillcolor="#399de5"] ;
3368 -> 3370 ;
3371 [label="gini = 0.0\nsamples = 518\nvalue = [0, 518]\nclass = Anomaly", fillcolor="#399de5"] ;
1565 -> 3371 ;
3372 [label="pressure measurement <= 0.725\ngini = 0.244\nsamples = 22317\nvalue = [19141, 3176]\nclass = Normal", fillcolor="#e9965a"] ;
1534 -> 3372 ;
3373 [label="crc rate <= 17725.0\ngini = 0.032\nsamples = 3736\nvalue = [3676, 60]\nclass = Normal", fillcolor="#e5833c"] ;
3372 -> 3373 ;
3374 [label="crc rate <= 13124.5\ngini = 0.024\nsamples = 3715\nvalue = [3669, 46]\nclass = Normal", fillcolor="#e5833b"] ;
3373 -> 3374 ;
3375 [label="gini = 0.0\nsamples = 7\nvalue = [0, 7]\nclass = Anomaly", fillcolor="#399de5"] ;
3374 -> 3375 ;
3376 [label="crc rate <= 17340.5\ngini = 0.021\nsamples = 3708\nvalue = [3669, 39]\nclass = Normal", fillcolor="#e5823b"] ;
3374 -> 3376 ;
3377 [label="pressure measurement <= 0.658\ngini = 0.018\nsamples = 3674\nvalue = [3641, 33]\nclass = Normal", fillcolor="#e5823b"] ;
3376 -> 3377 ;
3378 [label="crc rate <= 17219.5\ngini = 0.013\nsamples = 3255\nvalue = [3233, 22]\nclass = Normal", fillcolor="#e5823a"] ;
3377 -> 3378 ;
3379 [label="(...)", fillcolor="#C0C0C0"] ;
3378 -> 3379 ;
3428 [label="(...)", fillcolor="#C0C0C0"] ;
3378 -> 3428 ;
3429 [label="pressure measurement <= 0.666\ngini = 0.051\nsamples = 419\nvalue = [408, 11]\nclass = Normal", fillcolor="#e6843e"] ;
3377 -> 3429 ;
3430 [label="(...)", fillcolor="#C0C0C0"] ;
3429 -> 3430 ;
3431 [label="(...)", fillcolor="#C0C0C0"] ;
3429 -> 3431 ;
3442 [label="crc rate <= 17713.5\ngini = 0.291\nsamples = 34\nvalue = [28, 6]\nclass = Normal", fillcolor="#eb9c63"] ;
3376 -> 3442 ;
3443 [label="gini = 0.0\nsamples = 4\nvalue = [0, 4]\nclass = Anomaly", fillcolor="#399de5"] ;
3442 -> 3443 ;
3444 [label="pressure measurement <= 0.578\ngini = 0.124\nsamples = 30\nvalue = [28, 2]\nclass = Normal", fillcolor="#e78a47"] ;
3442 -> 3444 ;
3445 [label="(...)", fillcolor="#C0C0C0"] ;
3444 -> 3445 ;
3446 [label="(...)", fillcolor="#C0C0C0"] ;
3444 -> 3446 ;
3449 [label="crc rate <= 17988.0\ngini = 0.444\nsamples = 21\nvalue = [7, 14]\nclass = Anomaly", fillcolor="#9ccef2"] ;
3373 -> 3449 ;
3450 [label="gini = 0.0\nsamples = 14\nvalue = [0, 14]\nclass = Anomaly", fillcolor="#399de5"] ;
3449 -> 3450 ;
3451 [label="gini = 0.0\nsamples = 7\nvalue = [7, 0]\nclass = Normal", fillcolor="#e58139"] ;
3449 -> 3451 ;
3452 [label="pressure measurement <= 1.126\ngini = 0.279\nsamples = 18581\nvalue = [15465, 3116]\nclass = Normal", fillcolor="#ea9a61"] ;
3372 -> 3452 ;
3453 [label="pressure measurement <= 0.793\ngini = 0.498\nsamples = 443\nvalue = [207, 236]\nclass = Anomaly", fillcolor="#e7f3fc"] ;
3452 -> 3453 ;
3454 [label="pressure measurement <= 0.747\ngini = 0.222\nsamples = 220\nvalue = [192, 28]\nclass = Normal", fillcolor="#e99356"] ;
3453 -> 3454 ;
3455 [label="gini = 0.0\nsamples = 15\nvalue = [0, 15]\nclass = Anomaly", fillcolor="#399de5"] ;
3454 -> 3455 ;
3456 [label="pressure measurement <= 0.773\ngini = 0.119\nsamples = 205\nvalue = [192, 13]\nclass = Normal", fillcolor="#e78a46"] ;
3454 -> 3456 ;
3457 [label="crc rate <= 17466.5\ngini = 0.061\nsamples = 191\nvalue = [185, 6]\nclass = Normal", fillcolor="#e6853f"] ;
3456 -> 3457 ;
3458 [label="(...)", fillcolor="#C0C0C0"] ;
3457 -> 3458 ;
3465 [label="(...)", fillcolor="#C0C0C0"] ;
3457 -> 3465 ;
3466 [label="pressure measurement <= 0.793\ngini = 0.5\nsamples = 14\nvalue = [7, 7]\nclass = Normal", fillcolor="#ffffff"] ;
3456 -> 3466 ;
3467 [label="(...)", fillcolor="#C0C0C0"] ;
3466 -> 3467 ;
3468 [label="(...)", fillcolor="#C0C0C0"] ;
3466 -> 3468 ;
3469 [label="pressure measurement <= 1.103\ngini = 0.125\nsamples = 223\nvalue = [15, 208]\nclass = Anomaly", fillcolor="#47a4e7"] ;
3453 -> 3469 ;
3470 [label="pressure measurement <= 0.84\ngini = 0.076\nsamples = 202\nvalue = [8, 194]\nclass = Anomaly", fillcolor="#41a1e6"] ;
3469 -> 3470 ;
3471 [label="crc rate <= 17466.5\ngini = 0.257\nsamples = 33\nvalue = [5, 28]\nclass = Anomaly", fillcolor="#5caeea"] ;
3470 -> 3471 ;
3472 [label="(...)", fillcolor="#C0C0C0"] ;
3471 -> 3472 ;
3481 [label="(...)", fillcolor="#C0C0C0"] ;
3471 -> 3481 ;
3482 [label="pressure measurement <= 1.033\ngini = 0.035\nsamples = 169\nvalue = [3, 166]\nclass = Anomaly", fillcolor="#3d9fe5"] ;
3470 -> 3482 ;
3483 [label="(...)", fillcolor="#C0C0C0"] ;
3482 -> 3483 ;
3484 [label="(...)", fillcolor="#C0C0C0"] ;
3482 -> 3484 ;
3487 [label="crc rate <= 17219.0\ngini = 0.444\nsamples = 21\nvalue = [7, 14]\nclass = Anomaly", fillcolor="#9ccef2"] ;
3469 -> 3487 ;
3488 [label="gini = 0.0\nsamples = 12\nvalue = [0, 12]\nclass = Anomaly", fillcolor="#399de5"] ;
3487 -> 3488 ;
3489 [label="pressure measurement <= 1.12\ngini = 0.346\nsamples = 9\nvalue = [7, 2]\nclass = Normal", fillcolor="#eca572"] ;
3487 -> 3489 ;
3490 [label="(...)", fillcolor="#C0C0C0"] ;
3489 -> 3490 ;
3493 [label="(...)", fillcolor="#C0C0C0"] ;
3489 -> 3493 ;
3494 [label="pressure measurement <= 24.121\ngini = 0.267\nsamples = 18138\nvalue = [15258, 2880]\nclass = Normal", fillcolor="#ea995e"] ;
3452 -> 3494 ;
3495 [label="pressure measurement <= 8.94\ngini = 0.248\nsamples = 17148\nvalue = [14663, 2485]\nclass = Normal", fillcolor="#e9965b"] ;
3494 -> 3495 ;
3496 [label="pressure measurement <= 8.874\ngini = 0.286\nsamples = 9585\nvalue = [7929, 1656]\nclass = Normal", fillcolor="#ea9b62"] ;
3495 -> 3496 ;
3497 [label="pressure measurement <= 4.793\ngini = 0.25\nsamples = 9185\nvalue = [7838, 1347]\nclass = Normal", fillcolor="#e9975b"] ;
3496 -> 3497 ;
3498 [label="(...)", fillcolor="#C0C0C0"] ;
3497 -> 3498 ;
4647 [label="(...)", fillcolor="#C0C0C0"] ;
3497 -> 4647 ;
5408 [label="pressure measurement <= 8.885\ngini = 0.351\nsamples = 400\nvalue = [91, 309]\nclass = Anomaly", fillcolor="#73baed"] ;
3496 -> 5408 ;
5409 [label="(...)", fillcolor="#C0C0C0"] ;
5408 -> 5409 ;
5410 [label="(...)", fillcolor="#C0C0C0"] ;
5408 -> 5410 ;
5453 [label="pressure measurement <= 20.121\ngini = 0.195\nsamples = 7563\nvalue = [6734, 829]\nclass = Normal", fillcolor="#e89151"] ;
3495 -> 5453 ;
5454 [label="pressure measurement <= 9.589\ngini = 0.179\nsamples = 6667\nvalue = [6003, 664]\nclass = Normal", fillcolor="#e88f4f"] ;
5453 -> 5454 ;
5455 [label="(...)", fillcolor="#C0C0C0"] ;
5454 -> 5455 ;
5558 [label="(...)", fillcolor="#C0C0C0"] ;
5454 -> 5558 ;
7113 [label="pressure measurement <= 20.251\ngini = 0.3\nsamples = 896\nvalue = [731, 165]\nclass = Normal", fillcolor="#eb9d66"] ;
5453 -> 7113 ;
7114 [label="(...)", fillcolor="#C0C0C0"] ;
7113 -> 7114 ;
7147 [label="(...)", fillcolor="#C0C0C0"] ;
7113 -> 7147 ;
7398 [label="pressure measurement <= 32.514\ngini = 0.48\nsamples = 990\nvalue = [595, 395]\nclass = Normal", fillcolor="#f6d5bc"] ;
3494 -> 7398 ;
7399 [label="pressure measurement <= 27.922\ngini = 0.491\nsamples = 858\nvalue = [486, 372]\nclass = Normal", fillcolor="#f9e1d1"] ;
7398 -> 7399 ;
7400 [label="pressure measurement <= 24.274\ngini = 0.45\nsamples = 465\nvalue = [306, 159]\nclass = Normal", fillcolor="#f3c2a0"] ;
7399 -> 7400 ;
7401 [label="(...)", fillcolor="#C0C0C0"] ;
7400 -> 7401 ;
7428 [label="(...)", fillcolor="#C0C0C0"] ;
7400 -> 7428 ;
7641 [label="pressure measurement <= 28.25\ngini = 0.496\nsamples = 393\nvalue = [180, 213]\nclass = Anomaly", fillcolor="#e0f0fb"] ;
7399 -> 7641 ;
7642 [label="(...)", fillcolor="#C0C0C0"] ;
7641 -> 7642 ;
7675 [label="(...)", fillcolor="#C0C0C0"] ;
7641 -> 7675 ;
7902 [label="crc rate <= 14390.5\ngini = 0.288\nsamples = 132\nvalue = [109, 23]\nclass = Normal", fillcolor="#ea9c63"] ;
7398 -> 7902 ;
7903 [label="crc rate <= 14128.5\ngini = 0.128\nsamples = 58\nvalue = [54, 4]\nclass = Normal", fillcolor="#e78a48"] ;
7902 -> 7903 ;
7904 [label="(...)", fillcolor="#C0C0C0"] ;
7903 -> 7904 ;
7919 [label="(...)", fillcolor="#C0C0C0"] ;
7903 -> 7919 ;
7920 [label="crc rate <= 14645.0\ngini = 0.382\nsamples = 74\nvalue = [55, 19]\nclass = Normal", fillcolor="#eead7d"] ;
7902 -> 7920 ;
7921 [label="(...)", fillcolor="#C0C0C0"] ;
7920 -> 7921 ;
7932 [label="(...)", fillcolor="#C0C0C0"] ;
7920 -> 7932 ;
7957 [label="gini = 0.0\nsamples = 680\nvalue = [0, 680]\nclass = Anomaly", fillcolor="#399de5"] ;
1533 -> 7957 ;
7958 [label="pressure measurement <= 39.917\ngini = 0.007\nsamples = 878\nvalue = [3, 875]\nclass = Anomaly", fillcolor="#3a9de5"] ;
1532 -> 7958 ;
7959 [label="pressure measurement <= 39.509\ngini = 0.469\nsamples = 8\nvalue = [3, 5]\nclass = Anomaly", fillcolor="#b0d8f5"] ;
7958 -> 7959 ;
7960 [label="gini = 0.0\nsamples = 4\nvalue = [0, 4]\nclass = Anomaly", fillcolor="#399de5"] ;
7959 -> 7960 ;
7961 [label="crc rate <= 14274.5\ngini = 0.375\nsamples = 4\nvalue = [3, 1]\nclass = Normal", fillcolor="#eeab7b"] ;
7959 -> 7961 ;
7962 [label="gini = 0.0\nsamples = 1\nvalue = [0, 1]\nclass = Anomaly", fillcolor="#399de5"] ;
7961 -> 7962 ;
7963 [label="gini = 0.0\nsamples = 3\nvalue = [3, 0]\nclass = Normal", fillcolor="#e58139"] ;
7961 -> 7963 ;
7964 [label="gini = 0.0\nsamples = 870\nvalue = [0, 870]\nclass = Anomaly", fillcolor="#399de5"] ;
7958 -> 7964 ;
}